digraph Tree {
node [shape=box, style="rounded", color="black", fontname="helvetica"] ;
edge [fontname="helvetica"] ;
0 [label="lunch_free/reduced <= 0.5\nsquared_error = 231.2\nsamples = 487\nvalue = 66.4"] ;
1 [label="test preparation course_completed <= 0.5\nsquared_error = 200.5\nsamples = 323\nvalue = 70.1"] ;
0 -> 1 [labeldistance=2.5, labelangle=45, headlabel="True"] ;
2 [label="race/ethnicity_group E <= 0.5\nsquared_error = 200.3\nsamples = 209\nvalue = 67.6"] ;
1 -> 2 ;
3 [label="race/ethnicity_group B <= 0.5\nsquared_error = 180.8\nsamples = 185\nvalue = 66.3"] ;
2 -> 3 ;
4 [label="race/ethnicity_group A <= 0.5\nsquared_error = 149.4\nsamples = 143\nvalue = 67.9"] ;
3 -> 4 ;
5 [label="parental level of education_high school <= 0.5\nsquared_error = 145.9\nsamples = 132\nvalue = 68.5"] ;
4 -> 5 ;
6 [label="parental level of education_some high school <= 0.5\nsquared_error = 148.9\nsamples = 110\nvalue = 69.2"] ;
5 -> 6 ;
7 [label="race/ethnicity_group D <= 0.5\nsquared_error = 156.6\nsamples = 89\nvalue = 70.1"] ;
6 -> 7 ;
8 [label="parental level of education_some college <= 0.5\nsquared_error = 176.0\nsamples = 44\nvalue = 68.6"] ;
7 -> 8 ;
9 [label="parental level of education_bachelor's degree <= 0.5\nsquared_error = 213.5\nsamples = 25\nvalue = 71.2"] ;
8 -> 9 ;
10 [label="gender_female <= 0.5\nsquared_error = 259.8\nsamples = 18\nvalue = 69.7"] ;
9 -> 10 ;
11 [label="parental level of education_associate's degree <= 0.5\nsquared_error = 172.0\nsamples = 9\nvalue = 71.5"] ;
10 -> 11 ;
12 [label="squared_error = 0.0\nsamples = 1\nvalue = 71.0"] ;
11 -> 12 ;
13 [label="squared_error = 184.2\nsamples = 8\nvalue = 71.6"] ;
11 -> 13 ;
14 [label="squared_error = 368.7\nsamples = 9\nvalue = 67.2"] ;
10 -> 14 ;
15 [label="gender_male <= 0.5\nsquared_error = 115.9\nsamples = 7\nvalue = 73.9"] ;
9 -> 15 ;
16 [label="squared_error = 114.3\nsamples = 4\nvalue = 74.1"] ;
15 -> 16 ;
17 [label="squared_error = 118.6\nsamples = 3\nvalue = 73.6"] ;
15 -> 17 ;
18 [label="gender_male <= 0.5\nsquared_error = 107.9\nsamples = 19\nvalue = 65.3"] ;
8 -> 18 ;
19 [label="squared_error = 107.9\nsamples = 11\nvalue = 68.4"] ;
18 -> 19 ;
20 [label="squared_error = 82.2\nsamples = 8\nvalue = 61.5"] ;
18 -> 20 ;
21 [label="gender_male <= 0.5\nsquared_error = 132.0\nsamples = 45\nvalue = 71.6"] ;
7 -> 21 ;
22 [label="parental level of education_bachelor's degree <= 0.5\nsquared_error = 129.6\nsamples = 19\nvalue = 70.6"] ;
21 -> 22 ;
23 [label="parental level of education_master's degree <= 0.5\nsquared_error = 133.9\nsamples = 16\nvalue = 71.3"] ;
22 -> 23 ;
24 [label="parental level of education_some college <= 0.5\nsquared_error = 98.2\nsamples = 11\nvalue = 72.6"] ;
23 -> 24 ;
25 [label="squared_error = 67.6\nsamples = 6\nvalue = 72.5"] ;
24 -> 25 ;
26 [label="squared_error = 132.2\nsamples = 5\nvalue = 72.7"] ;
24 -> 26 ;
27 [label="squared_error = 225.9\nsamples = 5\nvalue = 67.3"] ;
23 -> 27 ;
28 [label="squared_error = 91.4\nsamples = 3\nvalue = 66.8"] ;
22 -> 28 ;
29 [label="parental level of education_associate's degree <= 0.5\nsquared_error = 132.4\nsamples = 26\nvalue = 72.4"] ;
21 -> 29 ;
30 [label="parental level of education_some college <= 0.5\nsquared_error = 91.2\nsamples = 14\nvalue = 74.5"] ;
29 -> 30 ;
31 [label="parental level of education_master's degree <= 0.5\nsquared_error = 118.6\nsamples = 6\nvalue = 78.0"] ;
30 -> 31 ;
32 [label="squared_error = 256.9\nsamples = 2\nvalue = 76.7"] ;
31 -> 32 ;
33 [label="squared_error = 12.5\nsamples = 4\nvalue = 79.0"] ;
31 -> 33 ;
34 [label="squared_error = 68.2\nsamples = 8\nvalue = 72.7"] ;
30 -> 34 ;
35 [label="squared_error = 169.1\nsamples = 12\nvalue = 69.9"] ;
29 -> 35 ;
36 [label="gender_male <= 0.5\nsquared_error = 94.7\nsamples = 21\nvalue = 65.2"] ;
6 -> 36 ;
37 [label="race/ethnicity_group D <= 0.5\nsquared_error = 78.3\nsamples = 13\nvalue = 65.9"] ;
36 -> 37 ;
38 [label="squared_error = 58.9\nsamples = 6\nvalue = 67.9"] ;
37 -> 38 ;
39 [label="squared_error = 89.0\nsamples = 7\nvalue = 64.1"] ;
37 -> 39 ;
40 [label="race/ethnicity_group D <= 0.5\nsquared_error = 125.6\nsamples = 8\nvalue = 63.6"] ;
36 -> 40 ;
41 [label="squared_error = 72.7\nsamples = 4\nvalue = 58.0"] ;
40 -> 41 ;
42 [label="squared_error = 87.5\nsamples = 4\nvalue = 72.0"] ;
40 -> 42 ;
43 [label="gender_female <= 0.5\nsquared_error = 113.6\nsamples = 22\nvalue = 65.0"] ;
5 -> 43 ;
44 [label="race/ethnicity_group C <= 0.5\nsquared_error = 75.6\nsamples = 10\nvalue = 67.5"] ;
43 -> 44 ;
45 [label="squared_error = 99.4\nsamples = 3\nvalue = 64.8"] ;
44 -> 45 ;
46 [label="squared_error = 53.6\nsamples = 7\nvalue = 69.1"] ;
44 -> 46 ;
47 [label="race/ethnicity_group D <= 0.5\nsquared_error = 134.3\nsamples = 12\nvalue = 63.1"] ;
43 -> 47 ;
48 [label="squared_error = 172.5\nsamples = 8\nvalue = 63.0"] ;
47 -> 48 ;
49 [label="squared_error = 42.6\nsamples = 4\nvalue = 63.2"] ;
47 -> 49 ;
50 [label="gender_female <= 0.5\nsquared_error = 132.0\nsamples = 11\nvalue = 60.4"] ;
4 -> 50 ;
51 [label="parental level of education_bachelor's degree <= 0.5\nsquared_error = 69.6\nsamples = 4\nvalue = 72.5"] ;
50 -> 51 ;
52 [label="parental level of education_some high school <= 0.5\nsquared_error = 1.4\nsamples = 3\nvalue = 68.8"] ;
51 -> 52 ;
53 [label="parental level of education_high school <= 0.5\nsquared_error = 0.2\nsamples = 2\nvalue = 68.2"] ;
52 -> 53 ;
54 [label="squared_error = 0.0\nsamples = 1\nvalue = 69.0"] ;
53 -> 54 ;
55 [label="squared_error = 0.0\nsamples = 1\nvalue = 68.0"] ;
53 -> 55 ;
56 [label="squared_error = 0.0\nsamples = 1\nvalue = 71.0"] ;
52 -> 56 ;
57 [label="squared_error = 0.0\nsamples = 1\nvalue = 91.0"] ;
51 -> 57 ;
58 [label="parental level of education_high school <= 0.5\nsquared_error = 28.3\nsamples = 7\nvalue = 53.1"] ;
50 -> 58 ;
59 [label="parental level of education_some college <= 0.5\nsquared_error = 23.7\nsamples = 6\nvalue = 52.2"] ;
58 -> 59 ;
60 [label="parental level of education_bachelor's degree <= 0.5\nsquared_error = 19.0\nsamples = 4\nvalue = 50.0"] ;
59 -> 60 ;
61 [label="parental level of education_master's degree <= 0.5\nsquared_error = 1.0\nsamples = 2\nvalue = 49.0"] ;
60 -> 61 ;
62 [label="squared_error = 0.0\nsamples = 1\nvalue = 48.0"] ;
61 -> 62 ;
63 [label="squared_error = 0.0\nsamples = 1\nvalue = 50.0"] ;
61 -> 63 ;
64 [label="squared_error = 49.0\nsamples = 2\nvalue = 52.0"] ;
60 -> 64 ;
65 [label="squared_error = 3.6\nsamples = 2\nvalue = 56.7"] ;
59 -> 65 ;
66 [label="squared_error = 0.0\nsamples = 1\nvalue = 61.0"] ;
58 -> 66 ;
67 [label="parental level of education_master's degree <= 0.5\nsquared_error = 245.6\nsamples = 42\nvalue = 61.3"] ;
3 -> 67 ;
68 [label="gender_male <= 0.5\nsquared_error = 236.9\nsamples = 41\nvalue = 60.9"] ;
67 -> 68 ;
69 [label="parental level of education_bachelor's degree <= 0.5\nsquared_error = 306.8\nsamples = 23\nvalue = 58.9"] ;
68 -> 69 ;
70 [label="parental level of education_associate's degree <= 0.5\nsquared_error = 316.4\nsamples = 21\nvalue = 57.8"] ;
69 -> 70 ;
71 [label="parental level of education_some high school <= 0.5\nsquared_error = 342.8\nsamples = 16\nvalue = 56.2"] ;
70 -> 71 ;
72 [label="parental level of education_some college <= 0.5\nsquared_error = 420.9\nsamples = 12\nvalue = 57.6"] ;
71 -> 72 ;
73 [label="squared_error = 131.8\nsamples = 8\nvalue = 56.7"] ;
72 -> 73 ;
74 [label="squared_error = 708.6\nsamples = 4\nvalue = 58.4"] ;
72 -> 74 ;
75 [label="squared_error = 155.7\nsamples = 4\nvalue = 53.1"] ;
71 -> 75 ;
76 [label="squared_error = 178.5\nsamples = 5\nvalue = 63.5"] ;
70 -> 76 ;
77 [label="squared_error = 99.2\nsamples = 2\nvalue = 69.2"] ;
69 -> 77 ;
78 [label="parental level of education_some high school <= 0.5\nsquared_error = 115.9\nsamples = 18\nvalue = 63.9"] ;
68 -> 78 ;
79 [label="parental level of education_associate's degree <= 0.5\nsquared_error = 100.7\nsamples = 15\nvalue = 62.4"] ;
78 -> 79 ;
80 [label="parental level of education_bachelor's degree <= 0.5\nsquared_error = 55.7\nsamples = 10\nvalue = 61.2"] ;
79 -> 80 ;
81 [label="parental level of education_some college <= 0.5\nsquared_error = 59.1\nsamples = 9\nvalue = 61.1"] ;
80 -> 81 ;
82 [label="squared_error = 63.1\nsamples = 5\nvalue = 60.8"] ;
81 -> 82 ;
83 [label="squared_error = 56.4\nsamples = 4\nvalue = 61.2"] ;
81 -> 83 ;
84 [label="squared_error = 0.0\nsamples = 1\nvalue = 63.0"] ;
80 -> 84 ;
85 [label="squared_error = 182.4\nsamples = 5\nvalue = 64.8"] ;
79 -> 85 ;
86 [label="squared_error = 80.2\nsamples = 3\nvalue = 75.7"] ;
78 -> 86 ;
87 [label="squared_error = 0.0\nsamples = 1\nvalue = 90.0"] ;
67 -> 87 ;
88 [label="parental level of education_some high school <= 0.5\nsquared_error = 245.7\nsamples = 24\nvalue = 77.2"] ;
2 -> 88 ;
89 [label="parental level of education_some college <= 0.5\nsquared_error = 136.2\nsamples = 22\nvalue = 79.8"] ;
88 -> 89 ;
90 [label="gender_female <= 0.5\nsquared_error = 132.4\nsamples = 11\nvalue = 82.3"] ;
89 -> 90 ;
91 [label="parental level of education_bachelor's degree <= 0.5\nsquared_error = 27.8\nsamples = 5\nvalue = 76.5"] ;
90 -> 91 ;
92 [label="parental level of education_associate's degree <= 0.5\nsquared_error = 23.6\nsamples = 4\nvalue = 74.7"] ;
91 -> 92 ;
93 [label="squared_error = 43.6\nsamples = 2\nvalue = 74.7"] ;
92 -> 93 ;
94 [label="squared_error = 3.6\nsamples = 2\nvalue = 74.7"] ;
92 -> 94 ;
95 [label="squared_error = 0.0\nsamples = 1\nvalue = 82.0"] ;
91 -> 95 ;
96 [label="parental level of education_bachelor's degree <= 0.5\nsquared_error = 169.1\nsamples = 6\nvalue = 87.4"] ;
90 -> 96 ;
97 [label="parental level of education_high school <= 0.5\nsquared_error = 113.0\nsamples = 5\nvalue = 90.4"] ;
96 -> 97 ;
98 [label="squared_error = 117.6\nsamples = 4\nvalue = 87.5"] ;
97 -> 98 ;
99 [label="squared_error = 0.0\nsamples = 1\nvalue = 99.0"] ;
97 -> 99 ;
100 [label="squared_error = 0.0\nsamples = 1\nvalue = 64.0"] ;
96 -> 100 ;
101 [label="gender_male <= 0.5\nsquared_error = 124.8\nsamples = 11\nvalue = 76.9"] ;
89 -> 101 ;
102 [label="squared_error = 121.3\nsamples = 4\nvalue = 74.7"] ;
101 -> 102 ;
103 [label="squared_error = 120.2\nsamples = 7\nvalue = 78.8"] ;
101 -> 103 ;
104 [label="squared_error = 649.0\nsamples = 2\nvalue = 61.2"] ;
88 -> 104 ;
105 [label="parental level of education_high school <= 0.5\nsquared_error = 169.4\nsamples = 114\nvalue = 74.6"] ;
1 -> 105 ;
106 [label="parental level of education_some high school <= 0.5\nsquared_error = 163.5\nsamples = 96\nvalue = 76.1"] ;
105 -> 106 ;
107 [label="gender_male <= 0.5\nsquared_error = 151.6\nsamples = 74\nvalue = 77.5"] ;
106 -> 107 ;
108 [label="race/ethnicity_group C <= 0.5\nsquared_error = 157.0\nsamples = 42\nvalue = 75.5"] ;
107 -> 108 ;
109 [label="parental level of education_associate's degree <= 0.5\nsquared_error = 165.7\nsamples = 24\nvalue = 77.6"] ;
108 -> 109 ;
110 [label="race/ethnicity_group A <= 0.5\nsquared_error = 118.9\nsamples = 16\nvalue = 75.2"] ;
109 -> 110 ;
111 [label="parental level of education_master's degree <= 0.5\nsquared_error = 123.5\nsamples = 15\nvalue = 75.0"] ;
110 -> 111 ;
112 [label="race/ethnicity_group D <= 0.5\nsquared_error = 126.4\nsamples = 13\nvalue = 74.8"] ;
111 -> 112 ;
113 [label="parental level of education_some college <= 0.5\nsquared_error = 171.1\nsamples = 7\nvalue = 73.2"] ;
112 -> 113 ;
114 [label="race/ethnicity_group E <= 0.5\nsquared_error = 242.0\nsamples = 2\nvalue = 77.0"] ;
113 -> 114 ;
115 [label="squared_error = 0.0\nsamples = 1\nvalue = 66.0"] ;
114 -> 115 ;
116 [label="squared_error = 0.0\nsamples = 1\nvalue = 99.0"] ;
114 -> 116 ;
117 [label="race/ethnicity_group E <= 0.5\nsquared_error = 144.3\nsamples = 5\nvalue = 72.1"] ;
113 -> 117 ;
118 [label="squared_error = 270.8\nsamples = 2\nvalue = 78.5"] ;
117 -> 118 ;
119 [label="squared_error = 14.5\nsamples = 3\nvalue = 67.8"] ;
117 -> 119 ;
120 [label="parental level of education_bachelor's degree <= 0.5\nsquared_error = 29.6\nsamples = 6\nvalue = 77.9"] ;
112 -> 120 ;
121 [label="squared_error = 15.6\nsamples = 5\nvalue = 79.5"] ;
120 -> 121 ;
122 [label="squared_error = 0.0\nsamples = 1\nvalue = 68.0"] ;
120 -> 122 ;
123 [label="race/ethnicity_group E <= 0.5\nsquared_error = 108.0\nsamples = 2\nvalue = 76.0"] ;
111 -> 123 ;
124 [label="squared_error = 0.0\nsamples = 1\nvalue = 70.0"] ;
123 -> 124 ;
125 [label="squared_error = 0.0\nsamples = 1\nvalue = 94.0"] ;
123 -> 125 ;
126 [label="squared_error = 0.0\nsamples = 1\nvalue = 78.0"] ;
110 -> 126 ;
127 [label="race/ethnicity_group A <= 0.5\nsquared_error = 219.9\nsamples = 8\nvalue = 81.9"] ;
109 -> 127 ;
128 [label="race/ethnicity_group E <= 0.5\nsquared_error = 176.8\nsamples = 7\nvalue = 84.0"] ;
127 -> 128 ;
129 [label="race/ethnicity_group D <= 0.5\nsquared_error = 177.6\nsamples = 4\nvalue = 82.7"] ;
128 -> 129 ;
130 [label="squared_error = 330.8\nsamples = 2\nvalue = 83.5"] ;
129 -> 130 ;
131 [label="squared_error = 54.0\nsamples = 2\nvalue = 82.0"] ;
129 -> 131 ;
132 [label="squared_error = 162.0\nsamples = 3\nvalue = 87.0"] ;
128 -> 132 ;
133 [label="squared_error = 0.0\nsamples = 1\nvalue = 55.0"] ;
127 -> 133 ;
134 [label="parental level of education_bachelor's degree <= 0.5\nsquared_error = 124.0\nsamples = 18\nvalue = 72.1"] ;
108 -> 134 ;
135 [label="parental level of education_some college <= 0.5\nsquared_error = 114.9\nsamples = 16\nvalue = 71.0"] ;
134 -> 135 ;
136 [label="parental level of education_associate's degree <= 0.5\nsquared_error = 142.4\nsamples = 8\nvalue = 67.6"] ;
135 -> 136 ;
137 [label="squared_error = 0.0\nsamples = 1\nvalue = 69.0"] ;
136 -> 137 ;
138 [label="squared_error = 177.4\nsamples = 7\nvalue = 67.2"] ;
136 -> 138 ;
139 [label="squared_error = 74.7\nsamples = 8\nvalue = 73.8"] ;
135 -> 139 ;
140 [label="squared_error = 56.2\nsamples = 2\nvalue = 84.5"] ;
134 -> 140 ;
141 [label="race/ethnicity_group B <= 0.5\nsquared_error = 135.8\nsamples = 32\nvalue = 79.7"] ;
107 -> 141 ;
142 [label="parental level of education_bachelor's degree <= 0.5\nsquared_error = 134.3\nsamples = 25\nvalue = 81.2"] ;
141 -> 142 ;
143 [label="race/ethnicity_group D <= 0.5\nsquared_error = 139.9\nsamples = 19\nvalue = 82.8"] ;
142 -> 143 ;
144 [label="parental level of education_some college <= 0.5\nsquared_error = 110.8\nsamples = 12\nvalue = 85.4"] ;
143 -> 144 ;
145 [label="race/ethnicity_group A <= 0.5\nsquared_error = 86.2\nsamples = 6\nvalue = 88.4"] ;
144 -> 145 ;
146 [label="parental level of education_master's degree <= 0.5\nsquared_error = 74.5\nsamples = 5\nvalue = 84.2"] ;
145 -> 146 ;
147 [label="squared_error = 78.2\nsamples = 4\nvalue = 82.8"] ;
146 -> 147 ;
148 [label="squared_error = 0.0\nsamples = 1\nvalue = 91.0"] ;
146 -> 148 ;
149 [label="squared_error = 0.0\nsamples = 1\nvalue = 97.0"] ;
145 -> 149 ;
150 [label="race/ethnicity_group C <= 0.5\nsquared_error = 117.4\nsamples = 6\nvalue = 82.4"] ;
144 -> 150 ;
151 [label="race/ethnicity_group A <= 0.5\nsquared_error = 153.8\nsamples = 4\nvalue = 79.6"] ;
150 -> 151 ;
152 [label="squared_error = 0.0\nsamples = 1\nvalue = 81.0"] ;
151 -> 152 ;
153 [label="squared_error = 191.7\nsamples = 3\nvalue = 79.2"] ;
151 -> 153 ;
154 [label="squared_error = 49.0\nsamples = 2\nvalue = 86.0"] ;
150 -> 154 ;
155 [label="parental level of education_associate's degree <= 0.5\nsquared_error = 156.4\nsamples = 7\nvalue = 79.4"] ;
143 -> 155 ;
156 [label="squared_error = 224.9\nsamples = 4\nvalue = 80.9"] ;
155 -> 156 ;
157 [label="squared_error = 57.9\nsamples = 3\nvalue = 77.3"] ;
155 -> 157 ;
158 [label="race/ethnicity_group C <= 0.5\nsquared_error = 83.4\nsamples = 6\nvalue = 76.2"] ;
142 -> 158 ;
159 [label="squared_error = 32.0\nsamples = 2\nvalue = 79.0"] ;
158 -> 159 ;
160 [label="squared_error = 100.6\nsamples = 4\nvalue = 75.0"] ;
158 -> 160 ;
161 [label="parental level of education_associate's degree <= 0.5\nsquared_error = 111.4\nsamples = 7\nvalue = 75.0"] ;
141 -> 161 ;
162 [label="squared_error = 140.9\nsamples = 4\nvalue = 75.1"] ;
161 -> 162 ;
163 [label="squared_error = 64.2\nsamples = 3\nvalue = 74.8"] ;
161 -> 163 ;
164 [label="gender_female <= 0.5\nsquared_error = 174.7\nsamples = 22\nvalue = 70.7"] ;
106 -> 164 ;
165 [label="race/ethnicity_group A <= 0.5\nsquared_error = 110.3\nsamples = 16\nvalue = 73.8"] ;
164 -> 165 ;
166 [label="race/ethnicity_group D <= 0.5\nsquared_error = 117.9\nsamples = 15\nvalue = 75.5"] ;
165 -> 166 ;
167 [label="race/ethnicity_group B <= 0.5\nsquared_error = 135.4\nsamples = 11\nvalue = 74.9"] ;
166 -> 167 ;
168 [label="race/ethnicity_group C <= 0.5\nsquared_error = 12.6\nsamples = 4\nvalue = 74.5"] ;
167 -> 168 ;
169 [label="squared_error = 0.0\nsamples = 1\nvalue = 74.0"] ;
168 -> 169 ;
170 [label="squared_error = 15.0\nsamples = 3\nvalue = 74.6"] ;
168 -> 170 ;
171 [label="squared_error = 217.1\nsamples = 7\nvalue = 75.2"] ;
167 -> 171 ;
172 [label="squared_error = 47.2\nsamples = 4\nvalue = 77.5"] ;
166 -> 172 ;
173 [label="squared_error = 0.0\nsamples = 1\nvalue = 66.0"] ;
165 -> 173 ;
174 [label="race/ethnicity_group B <= 0.5\nsquared_error = 239.2\nsamples = 6\nvalue = 58.7"] ;
164 -> 174 ;
175 [label="race/ethnicity_group C <= 0.5\nsquared_error = 145.2\nsamples = 4\nvalue = 63.8"] ;
174 -> 175 ;
176 [label="squared_error = 0.0\nsamples = 1\nvalue = 65.0"] ;
175 -> 176 ;
177 [label="squared_error = 192.9\nsamples = 3\nvalue = 63.3"] ;
175 -> 177 ;
178 [label="squared_error = 272.2\nsamples = 2\nvalue = 48.5"] ;
174 -> 178 ;
179 [label="race/ethnicity_group E <= 0.5\nsquared_error = 139.3\nsamples = 18\nvalue = 67.9"] ;
105 -> 179 ;
180 [label="race/ethnicity_group D <= 0.5\nsquared_error = 101.8\nsamples = 15\nvalue = 65.2"] ;
179 -> 180 ;
181 [label="gender_male <= 0.5\nsquared_error = 107.7\nsamples = 12\nvalue = 66.2"] ;
180 -> 181 ;
182 [label="race/ethnicity_group C <= 0.5\nsquared_error = 34.4\nsamples = 6\nvalue = 64.3"] ;
181 -> 182 ;
183 [label="squared_error = 26.0\nsamples = 4\nvalue = 68.0"] ;
182 -> 183 ;
184 [label="squared_error = 1.0\nsamples = 2\nvalue = 59.2"] ;
182 -> 184 ;
185 [label="race/ethnicity_group B <= 0.5\nsquared_error = 179.7\nsamples = 6\nvalue = 68.3"] ;
181 -> 185 ;
186 [label="squared_error = 189.6\nsamples = 3\nvalue = 71.7"] ;
185 -> 186 ;
187 [label="squared_error = 105.2\nsamples = 3\nvalue = 62.2"] ;
185 -> 187 ;
188 [label="gender_male <= 0.5\nsquared_error = 26.2\nsamples = 3\nvalue = 59.2"] ;
180 -> 188 ;
189 [label="squared_error = 0.0\nsamples = 1\nvalue = 57.0"] ;
188 -> 189 ;
190 [label="squared_error = 42.2\nsamples = 2\nvalue = 61.5"] ;
188 -> 190 ;
191 [label="gender_male <= 0.5\nsquared_error = 150.7\nsamples = 3\nvalue = 78.1"] ;
179 -> 191 ;
192 [label="squared_error = 0.0\nsamples = 1\nvalue = 59.0"] ;
191 -> 192 ;
193 [label="squared_error = 5.8\nsamples = 2\nvalue = 85.8"] ;
191 -> 193 ;
194 [label="parental level of education_some high school <= 0.5\nsquared_error = 210.3\nsamples = 164\nvalue = 58.9"] ;
0 -> 194 [labeldistance=2.5, labelangle=-45, headlabel="False"] ;
195 [label="test preparation course_completed <= 0.5\nsquared_error = 187.8\nsamples = 134\nvalue = 60.5"] ;
194 -> 195 ;
196 [label="parental level of education_high school <= 0.5\nsquared_error = 157.1\nsamples = 89\nvalue = 58.2"] ;
195 -> 196 ;
197 [label="parental level of education_master's degree <= 0.5\nsquared_error = 123.2\nsamples = 71\nvalue = 59.7"] ;
196 -> 197 ;
198 [label="race/ethnicity_group E <= 0.5\nsquared_error = 112.4\nsamples = 65\nvalue = 60.1"] ;
197 -> 198 ;
199 [label="race/ethnicity_group C <= 0.5\nsquared_error = 114.3\nsamples = 58\nvalue = 59.7"] ;
198 -> 199 ;
200 [label="parental level of education_bachelor's degree <= 0.5\nsquared_error = 110.9\nsamples = 36\nvalue = 58.8"] ;
199 -> 200 ;
201 [label="gender_male <= 0.5\nsquared_error = 93.4\nsamples = 28\nvalue = 56.7"] ;
200 -> 201 ;
202 [label="parental level of education_associate's degree <= 0.5\nsquared_error = 75.7\nsamples = 14\nvalue = 54.8"] ;
201 -> 202 ;
203 [label="race/ethnicity_group B <= 0.5\nsquared_error = 92.2\nsamples = 7\nvalue = 59.5"] ;
202 -> 203 ;
204 [label="race/ethnicity_group A <= 0.5\nsquared_error = 94.9\nsamples = 5\nvalue = 57.0"] ;
203 -> 204 ;
205 [label="squared_error = 116.2\nsamples = 3\nvalue = 57.8"] ;
204 -> 205 ;
206 [label="squared_error = 36.0\nsamples = 2\nvalue = 55.0"] ;
204 -> 206 ;
207 [label="squared_error = 37.6\nsamples = 2\nvalue = 65.3"] ;
203 -> 207 ;
208 [label="race/ethnicity_group D <= 0.5\nsquared_error = 16.0\nsamples = 7\nvalue = 50.2"] ;
202 -> 208 ;
209 [label="squared_error = 6.8\nsamples = 3\nvalue = 51.8"] ;
208 -> 209 ;
210 [label="squared_error = 19.7\nsamples = 4\nvalue = 47.8"] ;
208 -> 210 ;
211 [label="parental level of education_some college <= 0.5\nsquared_error = 104.1\nsamples = 14\nvalue = 58.4"] ;
201 -> 211 ;
212 [label="race/ethnicity_group B <= 0.5\nsquared_error = 66.0\nsamples = 8\nvalue = 59.2"] ;
211 -> 212 ;
213 [label="race/ethnicity_group D <= 0.5\nsquared_error = 78.9\nsamples = 5\nvalue = 57.2"] ;
212 -> 213 ;
214 [label="squared_error = 50.0\nsamples = 2\nvalue = 57.0"] ;
213 -> 214 ;
215 [label="squared_error = 96.2\nsamples = 3\nvalue = 57.4"] ;
213 -> 215 ;
216 [label="squared_error = 18.0\nsamples = 3\nvalue = 63.0"] ;
212 -> 216 ;
217 [label="race/ethnicity_group B <= 0.5\nsquared_error = 153.1\nsamples = 6\nvalue = 57.3"] ;
211 -> 217 ;
218 [label="race/ethnicity_group D <= 0.5\nsquared_error = 69.5\nsamples = 4\nvalue = 60.2"] ;
217 -> 218 ;
219 [label="squared_error = 0.0\nsamples = 1\nvalue = 58.0"] ;
218 -> 219 ;
220 [label="squared_error = 82.2\nsamples = 3\nvalue = 60.6"] ;
218 -> 220 ;
221 [label="squared_error = 272.2\nsamples = 2\nvalue = 51.7"] ;
217 -> 221 ;
222 [label="gender_female <= 0.5\nsquared_error = 90.0\nsamples = 8\nvalue = 67.4"] ;
200 -> 222 ;
223 [label="squared_error = 30.7\nsamples = 3\nvalue = 57.8"] ;
222 -> 223 ;
224 [label="race/ethnicity_group B <= 0.5\nsquared_error = 26.1\nsamples = 5\nvalue = 73.8"] ;
222 -> 224 ;
225 [label="squared_error = 38.9\nsamples = 3\nvalue = 71.3"] ;
224 -> 225 ;
226 [label="squared_error = 0.9\nsamples = 2\nvalue = 76.3"] ;
224 -> 226 ;
227 [label="parental level of education_associate's degree <= 0.5\nsquared_error = 115.8\nsamples = 22\nvalue = 61.0"] ;
199 -> 227 ;
228 [label="parental level of education_bachelor's degree <= 0.5\nsquared_error = 110.2\nsamples = 13\nvalue = 57.7"] ;
227 -> 228 ;
229 [label="gender_female <= 0.5\nsquared_error = 119.8\nsamples = 8\nvalue = 59.9"] ;
228 -> 229 ;
230 [label="squared_error = 94.6\nsamples = 6\nvalue = 61.6"] ;
229 -> 230 ;
231 [label="squared_error = 162.0\nsamples = 2\nvalue = 53.0"] ;
229 -> 231 ;
232 [label="gender_male <= 0.5\nsquared_error = 72.7\nsamples = 5\nvalue = 54.0"] ;
228 -> 232 ;
233 [label="squared_error = 67.7\nsamples = 2\nvalue = 57.2"] ;
232 -> 233 ;
234 [label="squared_error = 61.4\nsamples = 3\nvalue = 51.4"] ;
232 -> 234 ;
235 [label="gender_male <= 0.5\nsquared_error = 83.9\nsamples = 9\nvalue = 65.9"] ;
227 -> 235 ;
236 [label="squared_error = 23.3\nsamples = 5\nvalue = 61.3"] ;
235 -> 236 ;
237 [label="squared_error = 101.1\nsamples = 4\nvalue = 71.7"] ;
235 -> 237 ;
238 [label="gender_female <= 0.5\nsquared_error = 83.4\nsamples = 7\nvalue = 63.3"] ;
198 -> 238 ;
239 [label="squared_error = 81.0\nsamples = 2\nvalue = 55.0"] ;
238 -> 239 ;
240 [label="parental level of education_associate's degree <= 0.5\nsquared_error = 62.5\nsamples = 5\nvalue = 65.4"] ;
238 -> 240 ;
241 [label="parental level of education_bachelor's degree <= 0.5\nsquared_error = 65.9\nsamples = 3\nvalue = 63.3"] ;
240 -> 241 ;
242 [label="squared_error = 77.8\nsamples = 2\nvalue = 63.8"] ;
241 -> 242 ;
243 [label="squared_error = 0.0\nsamples = 1\nvalue = 61.0"] ;
241 -> 243 ;
244 [label="squared_error = 2.2\nsamples = 2\nvalue = 71.5"] ;
240 -> 244 ;
245 [label="gender_female <= 0.5\nsquared_error = 237.9\nsamples = 6\nvalue = 55.2"] ;
197 -> 245 ;
246 [label="squared_error = 0.0\nsamples = 1\nvalue = 79.0"] ;
245 -> 246 ;
247 [label="race/ethnicity_group E <= 0.5\nsquared_error = 179.8\nsamples = 5\nvalue = 51.9"] ;
245 -> 247 ;
248 [label="squared_error = 0.0\nsamples = 2\nvalue = 40.0"] ;
247 -> 248 ;
249 [label="squared_error = 173.0\nsamples = 3\nvalue = 56.6"] ;
247 -> 249 ;
250 [label="race/ethnicity_group D <= 0.5\nsquared_error = 255.1\nsamples = 18\nvalue = 51.5"] ;
196 -> 250 ;
251 [label="race/ethnicity_group E <= 0.5\nsquared_error = 206.3\nsamples = 15\nvalue = 47.6"] ;
250 -> 251 ;
252 [label="gender_male <= 0.5\nsquared_error = 222.4\nsamples = 14\nvalue = 46.7"] ;
251 -> 252 ;
253 [label="race/ethnicity_group B <= 0.5\nsquared_error = 303.9\nsamples = 8\nvalue = 45.5"] ;
252 -> 253 ;
254 [label="squared_error = 82.9\nsamples = 4\nvalue = 42.7"] ;
253 -> 254 ;
255 [label="squared_error = 547.2\nsamples = 4\nvalue = 49.0"] ;
253 -> 255 ;
256 [label="race/ethnicity_group C <= 0.5\nsquared_error = 88.8\nsamples = 6\nvalue = 48.6"] ;
252 -> 256 ;
257 [label="race/ethnicity_group A <= 0.5\nsquared_error = 32.2\nsamples = 3\nvalue = 41.5"] ;
256 -> 257 ;
258 [label="squared_error = 37.6\nsamples = 2\nvalue = 40.3"] ;
257 -> 258 ;
259 [label="squared_error = 0.0\nsamples = 1\nvalue = 45.0"] ;
257 -> 259 ;
260 [label="squared_error = 8.7\nsamples = 3\nvalue = 58.0"] ;
256 -> 260 ;
261 [label="squared_error = 0.0\nsamples = 1\nvalue = 55.0"] ;
251 -> 261 ;
262 [label="squared_error = 40.5\nsamples = 3\nvalue = 71.0"] ;
250 -> 262 ;
263 [label="race/ethnicity_group C <= 0.5\nsquared_error = 219.4\nsamples = 45\nvalue = 65.0"] ;
195 -> 263 ;
264 [label="parental level of education_bachelor's degree <= 0.5\nsquared_error = 210.8\nsamples = 32\nvalue = 68.7"] ;
263 -> 264 ;
265 [label="race/ethnicity_group A <= 0.5\nsquared_error = 196.6\nsamples = 29\nvalue = 67.5"] ;
264 -> 265 ;
266 [label="parental level of education_some college <= 0.5\nsquared_error = 154.7\nsamples = 24\nvalue = 69.0"] ;
265 -> 266 ;
267 [label="gender_male <= 0.5\nsquared_error = 136.3\nsamples = 19\nvalue = 70.6"] ;
266 -> 267 ;
268 [label="race/ethnicity_group E <= 0.5\nsquared_error = 106.3\nsamples = 11\nvalue = 68.4"] ;
267 -> 268 ;
269 [label="parental level of education_master's degree <= 0.5\nsquared_error = 97.2\nsamples = 10\nvalue = 70.6"] ;
268 -> 269 ;
270 [label="race/ethnicity_group D <= 0.5\nsquared_error = 28.6\nsamples = 8\nvalue = 68.9"] ;
269 -> 270 ;
271 [label="parental level of education_high school <= 0.5\nsquared_error = 13.8\nsamples = 4\nvalue = 70.1"] ;
270 -> 271 ;
272 [label="squared_error = 10.2\nsamples = 2\nvalue = 69.6"] ;
271 -> 272 ;
273 [label="squared_error = 20.2\nsamples = 2\nvalue = 71.5"] ;
271 -> 273 ;
274 [label="parental level of education_high school <= 0.5\nsquared_error = 44.2\nsamples = 4\nvalue = 67.2"] ;
270 -> 274 ;
275 [label="squared_error = 68.2\nsamples = 3\nvalue = 68.7"] ;
274 -> 275 ;
276 [label="squared_error = 0.0\nsamples = 1\nvalue = 65.0"] ;
274 -> 276 ;
277 [label="squared_error = 270.8\nsamples = 2\nvalue = 75.5"] ;
269 -> 277 ;
278 [label="squared_error = 0.0\nsamples = 1\nvalue = 57.0"] ;
268 -> 278 ;
279 [label="race/ethnicity_group E <= 0.5\nsquared_error = 167.1\nsamples = 8\nvalue = 75.3"] ;
267 -> 279 ;
280 [label="parental level of education_high school <= 0.5\nsquared_error = 89.0\nsamples = 5\nvalue = 69.0"] ;
279 -> 280 ;
281 [label="race/ethnicity_group B <= 0.5\nsquared_error = 103.0\nsamples = 4\nvalue = 68.2"] ;
280 -> 281 ;
282 [label="squared_error = 72.0\nsamples = 2\nvalue = 67.0"] ;
281 -> 282 ;
283 [label="squared_error = 144.0\nsamples = 2\nvalue = 70.0"] ;
281 -> 283 ;
284 [label="squared_error = 0.0\nsamples = 1\nvalue = 73.0"] ;
280 -> 284 ;
285 [label="parental level of education_high school <= 0.5\nsquared_error = 82.7\nsamples = 3\nvalue = 88.0"] ;
279 -> 285 ;
286 [label="squared_error = 121.0\nsamples = 2\nvalue = 89.0"] ;
285 -> 286 ;
287 [label="squared_error = 0.0\nsamples = 1\nvalue = 86.0"] ;
285 -> 287 ;
288 [label="race/ethnicity_group B <= 0.5\nsquared_error = 171.9\nsamples = 5\nvalue = 61.5"] ;
266 -> 288 ;
289 [label="race/ethnicity_group D <= 0.5\nsquared_error = 240.9\nsamples = 3\nvalue = 67.7"] ;
288 -> 289 ;
290 [label="squared_error = 361.0\nsamples = 2\nvalue = 68.0"] ;
289 -> 290 ;
291 [label="squared_error = 0.0\nsamples = 1\nvalue = 67.0"] ;
289 -> 291 ;
292 [label="gender_male <= 0.5\nsquared_error = 26.9\nsamples = 2\nvalue = 55.3"] ;
288 -> 292 ;
293 [label="squared_error = 0.0\nsamples = 1\nvalue = 48.0"] ;
292 -> 293 ;
294 [label="squared_error = 0.0\nsamples = 1\nvalue = 59.0"] ;
292 -> 294 ;
295 [label="parental level of education_associate's degree <= 0.5\nsquared_error = 319.2\nsamples = 5\nvalue = 60.8"] ;
265 -> 295 ;
296 [label="gender_male <= 0.5\nsquared_error = 250.2\nsamples = 3\nvalue = 65.4"] ;
295 -> 296 ;
297 [label="squared_error = 462.2\nsamples = 2\nvalue = 55.5"] ;
296 -> 297 ;
298 [label="squared_error = 0.0\nsamples = 1\nvalue = 72.0"] ;
296 -> 298 ;
299 [label="squared_error = 338.0\nsamples = 2\nvalue = 53.0"] ;
295 -> 299 ;
300 [label="gender_female <= 0.5\nsquared_error = 76.2\nsamples = 3\nvalue = 86.3"] ;
264 -> 300 ;
301 [label="squared_error = 0.0\nsamples = 1\nvalue = 74.0"] ;
300 -> 301 ;
302 [label="race/ethnicity_group E <= 0.5\nsquared_error = 0.2\nsamples = 2\nvalue = 92.5"] ;
300 -> 302 ;
303 [label="squared_error = 0.0\nsamples = 1\nvalue = 93.0"] ;
302 -> 303 ;
304 [label="squared_error = 0.0\nsamples = 1\nvalue = 92.0"] ;
302 -> 304 ;
305 [label="parental level of education_master's degree <= 0.5\nsquared_error = 144.4\nsamples = 13\nvalue = 57.0"] ;
263 -> 305 ;
306 [label="parental level of education_associate's degree <= 0.5\nsquared_error = 109.5\nsamples = 10\nvalue = 55.3"] ;
305 -> 306 ;
307 [label="gender_female <= 0.5\nsquared_error = 109.8\nsamples = 9\nvalue = 53.9"] ;
306 -> 307 ;
308 [label="parental level of education_some college <= 0.5\nsquared_error = 162.0\nsamples = 2\nvalue = 49.0"] ;
307 -> 308 ;
309 [label="squared_error = 0.0\nsamples = 1\nvalue = 40.0"] ;
308 -> 309 ;
310 [label="squared_error = 0.0\nsamples = 1\nvalue = 67.0"] ;
308 -> 310 ;
311 [label="parental level of education_high school <= 0.5\nsquared_error = 87.1\nsamples = 7\nvalue = 55.3"] ;
307 -> 311 ;
312 [label="parental level of education_bachelor's degree <= 0.5\nsquared_error = 88.2\nsamples = 4\nvalue = 49.4"] ;
311 -> 312 ;
313 [label="squared_error = 109.5\nsamples = 3\nvalue = 49.0"] ;
312 -> 313 ;
314 [label="squared_error = 0.0\nsamples = 1\nvalue = 51.0"] ;
312 -> 314 ;
315 [label="squared_error = 33.5\nsamples = 3\nvalue = 60.2"] ;
311 -> 315 ;
316 [label="squared_error = 0.0\nsamples = 1\nvalue = 65.0"] ;
306 -> 316 ;
317 [label="squared_error = 217.8\nsamples = 3\nvalue = 62.4"] ;
305 -> 317 ;
318 [label="gender_female <= 0.5\nsquared_error = 252.0\nsamples = 30\nvalue = 52.3"] ;
194 -> 318 ;
319 [label="test preparation course_completed <= 0.5\nsquared_error = 107.7\nsamples = 10\nvalue = 58.4"] ;
318 -> 319 ;
320 [label="race/ethnicity_group C <= 0.5\nsquared_error = 180.8\nsamples = 5\nvalue = 63.3"] ;
319 -> 320 ;
321 [label="squared_error = 204.0\nsamples = 3\nvalue = 57.0"] ;
320 -> 321 ;
322 [label="squared_error = 26.9\nsamples = 2\nvalue = 71.7"] ;
320 -> 322 ;
323 [label="race/ethnicity_group A <= 0.5\nsquared_error = 18.4\nsamples = 5\nvalue = 54.7"] ;
319 -> 323 ;
324 [label="race/ethnicity_group C <= 0.5\nsquared_error = 9.0\nsamples = 4\nvalue = 52.9"] ;
323 -> 324 ;
325 [label="squared_error = 0.0\nsamples = 1\nvalue = 49.0"] ;
324 -> 325 ;
326 [label="squared_error = 4.2\nsamples = 3\nvalue = 54.4"] ;
324 -> 326 ;
327 [label="squared_error = 0.0\nsamples = 1\nvalue = 61.0"] ;
323 -> 327 ;
328 [label="race/ethnicity_group C <= 0.5\nsquared_error = 297.3\nsamples = 20\nvalue = 49.2"] ;
318 -> 328 ;
329 [label="race/ethnicity_group B <= 0.5\nsquared_error = 149.9\nsamples = 11\nvalue = 52.5"] ;
328 -> 329 ;
330 [label="test preparation course_completed <= 0.5\nsquared_error = 145.5\nsamples = 7\nvalue = 54.4"] ;
329 -> 330 ;
331 [label="race/ethnicity_group D <= 0.5\nsquared_error = 118.8\nsamples = 6\nvalue = 56.3"] ;
330 -> 331 ;
332 [label="race/ethnicity_group A <= 0.5\nsquared_error = 136.2\nsamples = 4\nvalue = 55.5"] ;
331 -> 332 ;
333 [label="squared_error = 324.0\nsamples = 2\nvalue = 56.0"] ;
332 -> 333 ;
334 [label="squared_error = 42.2\nsamples = 2\nvalue = 55.2"] ;
332 -> 334 ;
335 [label="squared_error = 90.2\nsamples = 2\nvalue = 57.5"] ;
331 -> 335 ;
336 [label="squared_error = 0.0\nsamples = 1\nvalue = 35.0"] ;
330 -> 336 ;
337 [label="test preparation course_completed <= 0.5\nsquared_error = 140.5\nsamples = 4\nvalue = 49.2"] ;
329 -> 337 ;
338 [label="squared_error = 156.2\nsamples = 2\nvalue = 36.5"] ;
337 -> 338 ;
339 [label="squared_error = 12.2\nsamples = 2\nvalue = 55.5"] ;
337 -> 339 ;
340 [label="test preparation course_completed <= 0.5\nsquared_error = 446.4\nsamples = 9\nvalue = 45.1"] ;
328 -> 340 ;
341 [label="squared_error = 438.4\nsamples = 6\nvalue = 40.4"] ;
340 -> 341 ;
342 [label="squared_error = 269.5\nsamples = 3\nvalue = 57.0"] ;
340 -> 342 ;
}